net
{
	propagationenginegenerator1791944048146838126L = "edu.ucla.belief.approx.BeliefPropagationSettings@6a84944";
	recoveryenginegenerator6944530267470113528l = "edu.ucla.util.SettingsImpl@f336833";
	node_size = (130.0 55.0);
	huginenginegenerator3061656038650325130L = "edu.ucla.belief.inference.JoinTreeSettings@66867263";
}

node DebtIncomeRatio
{
	states = ("Low" "High" );
	position = (471 -89);
	DSLxEXTRA_DEFINITIONxMANDATORY = "false";
	diagnosistype = "AUXILIARY";
	label = "Ratio of Debts To Income";
	DSLxPOSITIONxWIDTH = "81";
	DSLxEXTRA_DEFINITIONxDIAGNOSIS_TYPE = "AUXILIARY";
	excludepolicy = "include whole CPT";
	DSLxTYPE = "CPT";
	DSLxPOSITIONxHEIGHT = "30";
	DSLxEXTRA_DEFINITIONxRANKED = "false";
	ismapvariable = "false";
	ID = "RatioDebInc";
}
node Reliability
{
	states = ("Reliable" "Unreliable" );
	position = (345 -306);
	DSLxEXTRA_DEFINITIONxMANDATORY = "false";
	diagnosistype = "AUXILIARY";
	label = "Reliability";
	DSLxPOSITIONxWIDTH = "70";
	DSLxEXTRA_DEFINITIONxDIAGNOSIS_TYPE = "AUXILIARY";
	excludepolicy = "include whole CPT";
	DSLxTYPE = "CPT";
	DSLxPOSITIONxHEIGHT = "30";
	DSLxEXTRA_DEFINITIONxRANKED = "false";
	ismapvariable = "false";
	ID = "Reliability";
}
node FutureIncome
{
	states = ("Promising" "Not_promising" );
	position = (381 -462);
	DSLxEXTRA_DEFINITIONxMANDATORY = "false";
	diagnosistype = "AUXILIARY";
	label = "Future Income";
	DSLxPOSITIONxWIDTH = "90";
	DSLxEXTRA_DEFINITIONxDIAGNOSIS_TYPE = "AUXILIARY";
	excludepolicy = "include whole CPT";
	DSLxTYPE = "CPT";
	DSLxPOSITIONxHEIGHT = "30";
	DSLxEXTRA_DEFINITIONxRANKED = "false";
	ismapvariable = "false";
	ID = "FutureIncome";
}
node PaymentHistory
{
	states = ("Excellent" "Acceptable" "Unacceptable" );
	position = (224 -111);
	DSLxEXTRA_DEFINITIONxMANDATORY = "false";
	diagnosistype = "AUXILIARY";
	label = "Payment History";
	DSLxPOSITIONxWIDTH = "93";
	DSLxEXTRA_DEFINITIONxDIAGNOSIS_TYPE = "AUXILIARY";
	excludepolicy = "include whole CPT";
	DSLxTYPE = "CPT";
	DSLxPOSITIONxHEIGHT = "30";
	DSLxEXTRA_DEFINITIONxRANKED = "false";
	ismapvariable = "false";
	ID = "PaymentHistory";
}
node Income
{
	states = ("High" "Medium" "Low" );
	position = (99 -329);
	DSLxEXTRA_DEFINITIONxMANDATORY = "false";
	diagnosistype = "AUXILIARY";
	label = "Income";
	DSLxPOSITIONxWIDTH = "83";
	DSLxEXTRA_DEFINITIONxDIAGNOSIS_TYPE = "AUXILIARY";
	excludepolicy = "include whole CPT";
	DSLxTYPE = "CPT";
	DSLxPOSITIONxHEIGHT = "30";
	DSLxEXTRA_DEFINITIONxRANKED = "false";
	ismapvariable = "false";
	ID = "Profession";
}
node Assets
{
	states = ("High" "Medium" "Low" );
	position = (185 -438);
	DSLxEXTRA_DEFINITIONxMANDATORY = "false";
	diagnosistype = "AUXILIARY";
	label = "Assets";
	DSLxPOSITIONxWIDTH = "70";
	DSLxEXTRA_DEFINITIONxDIAGNOSIS_TYPE = "AUXILIARY";
	excludepolicy = "include whole CPT";
	DSLxTYPE = "CPT";
	DSLxPOSITIONxHEIGHT = "30";
	DSLxEXTRA_DEFINITIONxRANKED = "false";
	ismapvariable = "false";
	ID = "Worth";
}
node CreditWorthiness
{
	states = ("Positive" "Negative" );
	position = (647 -396);
	DSLxEXTRA_DEFINITIONxMANDATORY = "false";
	diagnosistype = "AUXILIARY";
	label = "Credit Worthiness";
	DSLxPOSITIONxWIDTH = "100";
	DSLxEXTRA_DEFINITIONxDIAGNOSIS_TYPE = "AUXILIARY";
	excludepolicy = "include whole CPT";
	DSLxTYPE = "CPT";
	DSLxPOSITIONxHEIGHT = "30";
	DSLxEXTRA_DEFINITIONxRANKED = "false";
	ismapvariable = "false";
	ID = "CreditWorthiness";
}
node Age
{
	states = ("Between16and21" "Between22and64" "Over65" );
	position = (159 -207);
	DSLxEXTRA_DEFINITIONxMANDATORY = "false";
	diagnosistype = "AUXILIARY";
	label = "Age";
	DSLxPOSITIONxWIDTH = "70";
	DSLxEXTRA_DEFINITIONxDIAGNOSIS_TYPE = "AUXILIARY";
	excludepolicy = "include whole CPT";
	DSLxTYPE = "CPT";
	DSLxPOSITIONxHEIGHT = "30";
	DSLxEXTRA_DEFINITIONxRANKED = "false";
	ismapvariable = "false";
	ID = "Age";
}
potential ( DebtIncomeRatio | )
{
	data = (	0.5	0.5	);
}
potential ( Reliability | PaymentHistory Age )
{
	data = (((	0.82	0.18	)
		(	0.87	0.13	)
		(	0.9	0.1	))
		((	0.71	0.29	)
		(	0.74	0.26	)
		(	0.78	0.22	))
		((	0.2	0.8	)
		(	0.2	0.8	)
		(	0.2	0.8	)));
}
potential ( FutureIncome | Income Assets )
{
	data = (((	0.9	0.1	)
		(	0.7	0.3	)
		(	0.46	0.54	))
		((	0.78	0.22	)
		(	0.5	0.5	)
		(	0.4	0.6	))
		((	0.45	0.55	)
		(	0.36	0.64	)
		(	0.2	0.8	)));
}
potential ( PaymentHistory | Age DebtIncomeRatio )
{
	data = (((	0.2004462625511343	0.42766827817032355	0.3718854592785422	)
		(	0.12244897959183675	0.4693877551020408	0.4081632653061224	))
		((	0.78	0.2	0.02	)
		(	0.3037974683544304	0.37974683544303806	0.31645569620253167	))
		((	0.7481108312342569	0.18891687657430728	0.06297229219143577	)
		(	0.7481108312342569	0.18891687657430728	0.06297229219143577	)));
}
potential ( Income | )
{
	data = (	0.3333333333333333	0.3333333333333333	0.3333333333333333	);
}
potential ( Assets | Income )
{
	data = ((	0.7740164684354987	0.18	0.0459835315645014	)
		(	0.42857142857142855	0.28571428571428575	0.28571428571428575	)
		(	0.21	0.3333333333333333	0.4566666666666667	));
}
potential ( CreditWorthiness | Reliability FutureIncome DebtIncomeRatio )
{
	data = ((((	0.9	0.1	)
		(	0.5	0.5	))
		((	0.6	0.4	)
		(	0.3	0.7	)))
		(((	0.6	0.4	)
		(	0.4	0.6	))
		((	0.2	0.8	)
		(	0.05	0.95	))));
}
potential ( Age | )
{
	data = (	0.3333333333333333	0.3333333333333333	0.3333333333333333	);
}
